digraph Tree {
node [shape=box, style="filled, rounded", color="black", fontname=helvetica] ;
edge [fontname=helvetica] ;
0 [label=<NAS_outer &le; 5.5<br/>gini = 0.5<br/>samples = 40103<br/>value = [20103, 20000]<br/>class = Ar39>, fillcolor="#fffefe"] ;
1 [label=<NPE_inner &le; 0.5<br/>gini = 0.408<br/>samples = 25868<br/>value = [18484, 7384]<br/>class = Ar39>, fillcolor="#efb388"] ;
0 -> 1 [labeldistance=2.5, labelangle=45, headlabel="True"] ;
2 [label=<NAS_tot &le; 4.5<br/>gini = 0.482<br/>samples = 10358<br/>value = [4205, 6153]<br/>class = Mu>, fillcolor="#c0e0f7"] ;
1 -> 2 ;
3 [label=<SpatRange_outer &le; 17.5<br/>gini = 0.5<br/>samples = 6805<br/>value = [3449, 3356]<br/>class = Ar39>, fillcolor="#fefcfa"] ;
2 -> 3 ;
4 [label=<SpatRange_outer &le; 6.5<br/>gini = 0.494<br/>samples = 6219<br/>value = [3449, 2770]<br/>class = Ar39>, fillcolor="#fae6d8"] ;
3 -> 4 ;
5 [label=<gini = 0.495<br/>samples = 3997<br/>value = [1792, 2205]<br/>class = Mu>, fillcolor="#daedfa"] ;
4 -> 5 ;
6 [label=<gini = 0.379<br/>samples = 2222<br/>value = [1657, 565]<br/>class = Ar39>, fillcolor="#eeac7d"] ;
4 -> 6 ;
7 [label=<gini = 0.0<br/>samples = 586<br/>value = [0, 586]<br/>class = Mu>, fillcolor="#399de5"] ;
3 -> 7 ;
8 [label=<SpatRange_outer &le; 6.5<br/>gini = 0.335<br/>samples = 3553<br/>value = [756, 2797]<br/>class = Mu>, fillcolor="#6fb7ec"] ;
2 -> 8 ;
9 [label=<MeanNPEActive_outer &le; 1.3<br/>gini = 0.171<br/>samples = 1585<br/>value = [150, 1435]<br/>class = Mu>, fillcolor="#4ea7e8"] ;
8 -> 9 ;
10 [label=<gini = 0.468<br/>samples = 270<br/>value = [101, 169]<br/>class = Mu>, fillcolor="#afd8f5"] ;
9 -> 10 ;
11 [label=<gini = 0.072<br/>samples = 1315<br/>value = [49, 1266]<br/>class = Mu>, fillcolor="#41a1e6"] ;
9 -> 11 ;
12 [label=<NPE_tot &le; 7.5<br/>gini = 0.426<br/>samples = 1968<br/>value = [606, 1362]<br/>class = Mu>, fillcolor="#91c9f1"] ;
8 -> 12 ;
13 [label=<gini = 0.5<br/>samples = 994<br/>value = [496, 498]<br/>class = Mu>, fillcolor="#feffff"] ;
12 -> 13 ;
14 [label=<gini = 0.2<br/>samples = 974<br/>value = [110, 864]<br/>class = Mu>, fillcolor="#52a9e8"] ;
12 -> 14 ;
15 [label=<MeanNPEActive_tot &le; 2.29<br/>gini = 0.146<br/>samples = 15510<br/>value = [14279, 1231]<br/>class = Ar39>, fillcolor="#e78c4a"] ;
1 -> 15 ;
16 [label=<MeanNPEActive_outer &le; 1.775<br/>gini = 0.091<br/>samples = 14740<br/>value = [14035, 705]<br/>class = Ar39>, fillcolor="#e68743"] ;
15 -> 16 ;
17 [label=<NAS_inner &le; 6.5<br/>gini = 0.059<br/>samples = 12937<br/>value = [12545, 392]<br/>class = Ar39>, fillcolor="#e6853f"] ;
16 -> 17 ;
18 [label=<gini = 0.053<br/>samples = 12819<br/>value = [12472, 347]<br/>class = Ar39>, fillcolor="#e6853f"] ;
17 -> 18 ;
19 [label=<gini = 0.472<br/>samples = 118<br/>value = [73, 45]<br/>class = Ar39>, fillcolor="#f5cfb3"] ;
17 -> 19 ;
20 [label=<NPE_outer &le; 9.5<br/>gini = 0.287<br/>samples = 1803<br/>value = [1490, 313]<br/>class = Ar39>, fillcolor="#ea9b63"] ;
16 -> 20 ;
21 [label=<gini = 0.167<br/>samples = 1313<br/>value = [1192, 121]<br/>class = Ar39>, fillcolor="#e88e4d"] ;
20 -> 21 ;
22 [label=<gini = 0.477<br/>samples = 490<br/>value = [298, 192]<br/>class = Ar39>, fillcolor="#f6d2b9"] ;
20 -> 22 ;
23 [label=<NAS_outer &le; 3.5<br/>gini = 0.433<br/>samples = 770<br/>value = [244, 526]<br/>class = Mu>, fillcolor="#95caf1"] ;
15 -> 23 ;
24 [label=<gini = 0.0<br/>samples = 115<br/>value = [115, 0]<br/>class = Ar39>, fillcolor="#e58139"] ;
23 -> 24 ;
25 [label=<NAS_outer &le; 4.5<br/>gini = 0.316<br/>samples = 655<br/>value = [129, 526]<br/>class = Mu>, fillcolor="#6ab5eb"] ;
23 -> 25 ;
26 [label=<gini = 0.482<br/>samples = 230<br/>value = [93, 137]<br/>class = Mu>, fillcolor="#bfe0f7"] ;
25 -> 26 ;
27 [label=<gini = 0.155<br/>samples = 425<br/>value = [36, 389]<br/>class = Mu>, fillcolor="#4ba6e7"] ;
25 -> 27 ;
28 [label=<MeanNPEActive_tot &le; 1.655<br/>gini = 0.202<br/>samples = 14235<br/>value = [1619, 12616]<br/>class = Mu>, fillcolor="#52aae8"] ;
0 -> 28 [labeldistance=2.5, labelangle=-45, headlabel="False"] ;
29 [label=<NAS_inner &le; 0.5<br/>gini = 0.497<br/>samples = 2466<br/>value = [1334, 1132]<br/>class = Ar39>, fillcolor="#fbece1"] ;
28 -> 29 ;
30 [label=<SpatRange_outer &le; 17.5<br/>gini = 0.344<br/>samples = 1041<br/>value = [230, 811]<br/>class = Mu>, fillcolor="#71b9ec"] ;
29 -> 30 ;
31 [label=<NPE_tot &le; 7.5<br/>gini = 0.424<br/>samples = 753<br/>value = [230, 523]<br/>class = Mu>, fillcolor="#90c8f0"] ;
30 -> 31 ;
32 [label=<gini = 0.5<br/>samples = 220<br/>value = [113, 107]<br/>class = Ar39>, fillcolor="#fef8f4"] ;
31 -> 32 ;
33 [label=<gini = 0.343<br/>samples = 533<br/>value = [117, 416]<br/>class = Mu>, fillcolor="#71b9ec"] ;
31 -> 33 ;
34 [label=<gini = 0.0<br/>samples = 288<br/>value = [0, 288]<br/>class = Mu>, fillcolor="#399de5"] ;
30 -> 34 ;
35 [label=<NPE_outer &le; 10.5<br/>gini = 0.349<br/>samples = 1425<br/>value = [1104, 321]<br/>class = Ar39>, fillcolor="#eda673"] ;
29 -> 35 ;
36 [label=<NPE_outer &le; 8.5<br/>gini = 0.257<br/>samples = 1154<br/>value = [979, 175]<br/>class = Ar39>, fillcolor="#ea985c"] ;
35 -> 36 ;
37 [label=<gini = 0.172<br/>samples = 694<br/>value = [628, 66]<br/>class = Ar39>, fillcolor="#e88e4e"] ;
36 -> 37 ;
38 [label=<gini = 0.362<br/>samples = 460<br/>value = [351, 109]<br/>class = Ar39>, fillcolor="#eda876"] ;
36 -> 38 ;
39 [label=<NAS_outer &le; 7.5<br/>gini = 0.497<br/>samples = 271<br/>value = [125, 146]<br/>class = Mu>, fillcolor="#e3f1fb"] ;
35 -> 39 ;
40 [label=<gini = 0.498<br/>samples = 124<br/>value = [66, 58]<br/>class = Ar39>, fillcolor="#fcf0e7"] ;
39 -> 40 ;
41 [label=<gini = 0.481<br/>samples = 147<br/>value = [59, 88]<br/>class = Mu>, fillcolor="#bedff6"] ;
39 -> 41 ;
42 [label=<MeanNPEActive_inner &le; 1.183<br/>gini = 0.047<br/>samples = 11769<br/>value = [285, 11484]<br/>class = Mu>, fillcolor="#3e9fe6"] ;
28 -> 42 ;
43 [label=<NPE_outer &le; 14.5<br/>gini = 0.022<br/>samples = 9408<br/>value = [103, 9305]<br/>class = Mu>, fillcolor="#3b9ee5"] ;
42 -> 43 ;
44 [label=<NAS_tot &le; 7.5<br/>gini = 0.108<br/>samples = 1402<br/>value = [80, 1322]<br/>class = Mu>, fillcolor="#45a3e7"] ;
43 -> 44 ;
45 [label=<gini = 0.081<br/>samples = 1271<br/>value = [54, 1217]<br/>class = Mu>, fillcolor="#42a1e6"] ;
44 -> 45 ;
46 [label=<gini = 0.318<br/>samples = 131<br/>value = [26, 105]<br/>class = Mu>, fillcolor="#6ab5eb"] ;
44 -> 46 ;
47 [label=<SpatRange_inner &le; 1.5<br/>gini = 0.006<br/>samples = 8006<br/>value = [23, 7983]<br/>class = Mu>, fillcolor="#3a9de5"] ;
43 -> 47 ;
48 [label=<gini = 0.003<br/>samples = 6230<br/>value = [10, 6220]<br/>class = Mu>, fillcolor="#399de5"] ;
47 -> 48 ;
49 [label=<gini = 0.015<br/>samples = 1776<br/>value = [13, 1763]<br/>class = Mu>, fillcolor="#3a9ee5"] ;
47 -> 49 ;
50 [label=<NPE_outer &le; 16.5<br/>gini = 0.142<br/>samples = 2361<br/>value = [182, 2179]<br/>class = Mu>, fillcolor="#4aa5e7"] ;
42 -> 50 ;
51 [label=<NPE_inner &le; 12.5<br/>gini = 0.491<br/>samples = 334<br/>value = [144, 190]<br/>class = Mu>, fillcolor="#cfe7f9"] ;
50 -> 51 ;
52 [label=<gini = 0.495<br/>samples = 234<br/>value = [129, 105]<br/>class = Ar39>, fillcolor="#fae8da"] ;
51 -> 52 ;
53 [label=<gini = 0.255<br/>samples = 100<br/>value = [15, 85]<br/>class = Mu>, fillcolor="#5caeea"] ;
51 -> 53 ;
54 [label=<NPE_inner &le; 4.5<br/>gini = 0.037<br/>samples = 2027<br/>value = [38, 1989]<br/>class = Mu>, fillcolor="#3d9fe5"] ;
50 -> 54 ;
55 [label=<gini = 0.013<br/>samples = 1423<br/>value = [9, 1414]<br/>class = Mu>, fillcolor="#3a9ee5"] ;
54 -> 55 ;
56 [label=<gini = 0.091<br/>samples = 604<br/>value = [29, 575]<br/>class = Mu>, fillcolor="#43a2e6"] ;
54 -> 56 ;
}