digraph Tree {
node [shape=box, style="filled, rounded", color="black", fontname=helvetica] ;
edge [fontname=helvetica] ;
0 [label=<MeanNPEActive_tot &le; 1.806<br/>gini = 0.5<br/>samples = 40103<br/>value = [20103, 20000]<br/>class = Ar39>, fillcolor="#fffefe"] ;
1 [label=<NPE_outer &le; 6.5<br/>gini = 0.361<br/>samples = 24438<br/>value = [18656, 5782]<br/>class = Ar39>, fillcolor="#eda876"] ;
0 -> 1 [labeldistance=2.5, labelangle=45, headlabel="True"] ;
2 [label=<SpatlVar_inner &le; -0.5<br/>gini = 0.251<br/>samples = 17901<br/>value = [15273, 2628]<br/>class = Ar39>, fillcolor="#e9975b"] ;
1 -> 2 ;
3 [label=<NPE_tot &le; 5.5<br/>gini = 0.477<br/>samples = 6004<br/>value = [3640, 2364]<br/>class = Ar39>, fillcolor="#f6d3ba"] ;
2 -> 3 ;
4 [label=<NAS_tot &le; 4.5<br/>gini = 0.444<br/>samples = 4372<br/>value = [2918, 1454]<br/>class = Ar39>, fillcolor="#f2c09c"] ;
3 -> 4 ;
5 [label=<gini = 0.44<br/>samples = 3911<br/>value = [2632, 1279]<br/>class = Ar39>, fillcolor="#f2be99"] ;
4 -> 5 ;
6 [label=<gini = 0.471<br/>samples = 461<br/>value = [286, 175]<br/>class = Ar39>, fillcolor="#f5ceb2"] ;
4 -> 6 ;
7 [label=<MeanNPEActive_outer &le; 1.35<br/>gini = 0.493<br/>samples = 1632<br/>value = [722, 910]<br/>class = Mu>, fillcolor="#d6ebfa"] ;
3 -> 7 ;
8 [label=<gini = 0.491<br/>samples = 617<br/>value = [266, 351]<br/>class = Mu>, fillcolor="#cfe7f9"] ;
7 -> 8 ;
9 [label=<gini = 0.495<br/>samples = 1015<br/>value = [456, 559]<br/>class = Mu>, fillcolor="#dbedfa"] ;
7 -> 9 ;
10 [label=<NAS_tot &le; 10.5<br/>gini = 0.043<br/>samples = 11897<br/>value = [11633, 264]<br/>class = Ar39>, fillcolor="#e6843d"] ;
2 -> 10 ;
11 [label=<NPE_outer &le; 3.5<br/>gini = 0.039<br/>samples = 11795<br/>value = [11562, 233]<br/>class = Ar39>, fillcolor="#e6843d"] ;
10 -> 11 ;
12 [label=<gini = 0.0<br/>samples = 3894<br/>value = [3894, 0]<br/>class = Ar39>, fillcolor="#e58139"] ;
11 -> 12 ;
13 [label=<gini = 0.057<br/>samples = 7901<br/>value = [7668, 233]<br/>class = Ar39>, fillcolor="#e6853f"] ;
11 -> 13 ;
14 [label=<gini = 0.423<br/>samples = 102<br/>value = [71, 31]<br/>class = Ar39>, fillcolor="#f0b88f"] ;
10 -> 14 ;
15 [label=<SpatlVar_inner &le; -0.5<br/>gini = 0.499<br/>samples = 6537<br/>value = [3383, 3154]<br/>class = Ar39>, fillcolor="#fdf6f2"] ;
1 -> 15 ;
16 [label=<NPE_tot &le; 7.5<br/>gini = 0.328<br/>samples = 3078<br/>value = [636, 2442]<br/>class = Mu>, fillcolor="#6db7ec"] ;
15 -> 16 ;
17 [label=<SpatRange_outer &le; 17.5<br/>gini = 0.431<br/>samples = 1283<br/>value = [404, 879]<br/>class = Mu>, fillcolor="#94caf1"] ;
16 -> 17 ;
18 [label=<gini = 0.465<br/>samples = 1098<br/>value = [404, 694]<br/>class = Mu>, fillcolor="#acd6f4"] ;
17 -> 18 ;
19 [label=<gini = 0.0<br/>samples = 185<br/>value = [0, 185]<br/>class = Mu>, fillcolor="#399de5"] ;
17 -> 19 ;
20 [label=<SpatlVar_outer &le; 5.421<br/>gini = 0.225<br/>samples = 1795<br/>value = [232, 1563]<br/>class = Mu>, fillcolor="#56ace9"] ;
16 -> 20 ;
21 [label=<gini = 0.109<br/>samples = 833<br/>value = [48, 785]<br/>class = Mu>, fillcolor="#45a3e7"] ;
20 -> 21 ;
22 [label=<gini = 0.309<br/>samples = 962<br/>value = [184, 778]<br/>class = Mu>, fillcolor="#68b4eb"] ;
20 -> 22 ;
23 [label=<NPE_tot &le; 16.5<br/>gini = 0.327<br/>samples = 3459<br/>value = [2747, 712]<br/>class = Ar39>, fillcolor="#eca26c"] ;
15 -> 23 ;
24 [label=<NAS_outer &le; 5.5<br/>gini = 0.278<br/>samples = 3171<br/>value = [2643, 528]<br/>class = Ar39>, fillcolor="#ea9a61"] ;
23 -> 24 ;
25 [label=<gini = 0.196<br/>samples = 1879<br/>value = [1672, 207]<br/>class = Ar39>, fillcolor="#e89152"] ;
24 -> 25 ;
26 [label=<gini = 0.373<br/>samples = 1292<br/>value = [971, 321]<br/>class = Ar39>, fillcolor="#eeab7a"] ;
24 -> 26 ;
27 [label=<NPE_outer &le; 13.5<br/>gini = 0.461<br/>samples = 288<br/>value = [104, 184]<br/>class = Mu>, fillcolor="#a9d4f4"] ;
23 -> 27 ;
28 [label=<gini = 0.499<br/>samples = 165<br/>value = [79, 86]<br/>class = Mu>, fillcolor="#eff7fd"] ;
27 -> 28 ;
29 [label=<gini = 0.324<br/>samples = 123<br/>value = [25, 98]<br/>class = Mu>, fillcolor="#6cb6ec"] ;
27 -> 29 ;
30 [label=<MeanNPEActive_inner &le; 1.646<br/>gini = 0.168<br/>samples = 15665<br/>value = [1447, 14218]<br/>class = Mu>, fillcolor="#4da7e8"] ;
0 -> 30 [labeldistance=2.5, labelangle=-45, headlabel="False"] ;
31 [label=<NPE_outer &le; 10.5<br/>gini = 0.116<br/>samples = 13752<br/>value = [851, 12901]<br/>class = Mu>, fillcolor="#46a3e7"] ;
30 -> 31 ;
32 [label=<NPE_tot &le; 10.5<br/>gini = 0.464<br/>samples = 1525<br/>value = [558, 967]<br/>class = Mu>, fillcolor="#abd6f4"] ;
31 -> 32 ;
33 [label=<NPE_outer &le; 9.5<br/>gini = 0.382<br/>samples = 1221<br/>value = [314, 907]<br/>class = Mu>, fillcolor="#7ebfee"] ;
32 -> 33 ;
34 [label=<gini = 0.458<br/>samples = 784<br/>value = [279, 505]<br/>class = Mu>, fillcolor="#a6d3f3"] ;
33 -> 34 ;
35 [label=<gini = 0.147<br/>samples = 437<br/>value = [35, 402]<br/>class = Mu>, fillcolor="#4aa6e7"] ;
33 -> 35 ;
36 [label=<SpatRange_inner &le; 1.5<br/>gini = 0.317<br/>samples = 304<br/>value = [244, 60]<br/>class = Ar39>, fillcolor="#eba06a"] ;
32 -> 36 ;
37 [label=<gini = 0.477<br/>samples = 125<br/>value = [76, 49]<br/>class = Ar39>, fillcolor="#f6d2b9"] ;
36 -> 37 ;
38 [label=<gini = 0.115<br/>samples = 179<br/>value = [168, 11]<br/>class = Ar39>, fillcolor="#e78946"] ;
36 -> 38 ;
39 [label=<MeanNPEActive_tot &le; 2.405<br/>gini = 0.047<br/>samples = 12227<br/>value = [293, 11934]<br/>class = Mu>, fillcolor="#3e9fe6"] ;
31 -> 39 ;
40 [label=<NAS_inner &le; 1.5<br/>gini = 0.153<br/>samples = 2751<br/>value = [230, 2521]<br/>class = Mu>, fillcolor="#4ba6e7"] ;
39 -> 40 ;
41 [label=<gini = 0.079<br/>samples = 2306<br/>value = [95, 2211]<br/>class = Mu>, fillcolor="#42a1e6"] ;
40 -> 41 ;
42 [label=<gini = 0.423<br/>samples = 445<br/>value = [135, 310]<br/>class = Mu>, fillcolor="#8fc8f0"] ;
40 -> 42 ;
43 [label=<NPE_tot &le; 15.5<br/>gini = 0.013<br/>samples = 9476<br/>value = [63, 9413]<br/>class = Mu>, fillcolor="#3a9ee5"] ;
39 -> 43 ;
44 [label=<gini = 0.088<br/>samples = 908<br/>value = [42, 866]<br/>class = Mu>, fillcolor="#43a2e6"] ;
43 -> 44 ;
45 [label=<gini = 0.005<br/>samples = 8568<br/>value = [21, 8547]<br/>class = Mu>, fillcolor="#399de5"] ;
43 -> 45 ;
46 [label=<SpatlVar_outer &le; 1.02<br/>gini = 0.429<br/>samples = 1913<br/>value = [596, 1317]<br/>class = Mu>, fillcolor="#93c9f1"] ;
30 -> 46 ;
47 [label=<gini = 0.136<br/>samples = 150<br/>value = [139, 11]<br/>class = Ar39>, fillcolor="#e78b49"] ;
46 -> 47 ;
48 [label=<NAS_outer &le; 5.5<br/>gini = 0.384<br/>samples = 1763<br/>value = [457, 1306]<br/>class = Mu>, fillcolor="#7ebfee"] ;
46 -> 48 ;
49 [label=<NPE_tot &le; 17.5<br/>gini = 0.334<br/>samples = 482<br/>value = [380, 102]<br/>class = Ar39>, fillcolor="#eca36e"] ;
48 -> 49 ;
50 [label=<gini = 0.107<br/>samples = 371<br/>value = [350, 21]<br/>class = Ar39>, fillcolor="#e78945"] ;
49 -> 50 ;
51 [label=<gini = 0.394<br/>samples = 111<br/>value = [30, 81]<br/>class = Mu>, fillcolor="#82c1ef"] ;
49 -> 51 ;
52 [label=<NPE_outer &le; 15.5<br/>gini = 0.113<br/>samples = 1281<br/>value = [77, 1204]<br/>class = Mu>, fillcolor="#46a3e7"] ;
48 -> 52 ;
53 [label=<gini = 0.462<br/>samples = 141<br/>value = [51, 90]<br/>class = Mu>, fillcolor="#a9d5f4"] ;
52 -> 53 ;
54 [label=<gini = 0.045<br/>samples = 1140<br/>value = [26, 1114]<br/>class = Mu>, fillcolor="#3e9fe6"] ;
52 -> 54 ;
}