digraph Tree {
node [shape=box, style="filled, rounded", color="black", fontname=helvetica] ;
edge [fontname=helvetica] ;
0 [label=<SpatlVar_inner &le; -0.5<br/>gini = 0.5<br/>samples = 40103<br/>value = [20103, 20000]<br/>class = Ar39>, fillcolor="#fffefe"] ;
1 [label=<NAS_outer &le; 4.5<br/>gini = 0.396<br/>samples = 16446<br/>value = [4468, 11978]<br/>class = Mu>, fillcolor="#83c2ef"] ;
0 -> 1 [labeldistance=2.5, labelangle=45, headlabel="True"] ;
2 [label=<NPE_outer &le; 6.5<br/>gini = 0.5<br/>samples = 6805<br/>value = [3449, 3356]<br/>class = Ar39>, fillcolor="#fefcfa"] ;
1 -> 2 ;
3 [label=<SpatlVar_outer &le; 42.744<br/>gini = 0.468<br/>samples = 4926<br/>value = [3088, 1838]<br/>class = Ar39>, fillcolor="#f4ccaf"] ;
2 -> 3 ;
4 [label=<MeanNPEActive_tot &le; 1.125<br/>gini = 0.445<br/>samples = 4608<br/>value = [3067, 1541]<br/>class = Ar39>, fillcolor="#f2c09c"] ;
3 -> 4 ;
5 [label=<gini = 0.343<br/>samples = 2090<br/>value = [1630, 460]<br/>class = Ar39>, fillcolor="#eca571"] ;
4 -> 5 ;
6 [label=<gini = 0.49<br/>samples = 2518<br/>value = [1437, 1081]<br/>class = Ar39>, fillcolor="#f9e0ce"] ;
4 -> 6 ;
7 [label=<SpatlVar_outer &le; 54.544<br/>gini = 0.123<br/>samples = 318<br/>value = [21, 297]<br/>class = Mu>, fillcolor="#47a4e7"] ;
3 -> 7 ;
8 [label=<gini = 0.259<br/>samples = 131<br/>value = [20, 111]<br/>class = Mu>, fillcolor="#5dafea"] ;
7 -> 8 ;
9 [label=<gini = 0.011<br/>samples = 187<br/>value = [1, 186]<br/>class = Mu>, fillcolor="#3a9ee5"] ;
7 -> 9 ;
10 [label=<NPE_tot &le; 7.5<br/>gini = 0.31<br/>samples = 1879<br/>value = [361, 1518]<br/>class = Mu>, fillcolor="#68b4eb"] ;
2 -> 10 ;
11 [label=<SpatRange_outer &le; 6.5<br/>gini = 0.444<br/>samples = 658<br/>value = [219, 439]<br/>class = Mu>, fillcolor="#9ccef2"] ;
10 -> 11 ;
12 [label=<gini = 0.389<br/>samples = 428<br/>value = [113, 315]<br/>class = Mu>, fillcolor="#80c0ee"] ;
11 -> 12 ;
13 [label=<gini = 0.497<br/>samples = 230<br/>value = [106, 124]<br/>class = Mu>, fillcolor="#e2f1fb"] ;
11 -> 13 ;
14 [label=<MeanNPEActive_outer &le; 2.375<br/>gini = 0.206<br/>samples = 1221<br/>value = [142, 1079]<br/>class = Mu>, fillcolor="#53aae8"] ;
10 -> 14 ;
15 [label=<gini = 0.299<br/>samples = 589<br/>value = [108, 481]<br/>class = Mu>, fillcolor="#65b3eb"] ;
14 -> 15 ;
16 [label=<gini = 0.102<br/>samples = 632<br/>value = [34, 598]<br/>class = Mu>, fillcolor="#44a3e6"] ;
14 -> 16 ;
17 [label=<NPE_outer &le; 7.5<br/>gini = 0.189<br/>samples = 9641<br/>value = [1019, 8622]<br/>class = Mu>, fillcolor="#50a9e8"] ;
1 -> 17 ;
18 [label=<MeanNPEActive_tot &le; 1.083<br/>gini = 0.491<br/>samples = 1703<br/>value = [737, 966]<br/>class = Mu>, fillcolor="#d0e8f9"] ;
17 -> 18 ;
19 [label=<SpatlVar_outer &le; 31.88<br/>gini = 0.477<br/>samples = 570<br/>value = [346, 224]<br/>class = Ar39>, fillcolor="#f6d3b9"] ;
18 -> 19 ;
20 [label=<gini = 0.44<br/>samples = 469<br/>value = [316, 153]<br/>class = Ar39>, fillcolor="#f2be99"] ;
19 -> 20 ;
21 [label=<gini = 0.418<br/>samples = 101<br/>value = [30, 71]<br/>class = Mu>, fillcolor="#8dc6f0"] ;
19 -> 21 ;
22 [label=<NPE_tot &le; 6.5<br/>gini = 0.452<br/>samples = 1133<br/>value = [391, 742]<br/>class = Mu>, fillcolor="#a1d1f3"] ;
18 -> 22 ;
23 [label=<gini = 0.484<br/>samples = 524<br/>value = [215, 309]<br/>class = Mu>, fillcolor="#c3e1f7"] ;
22 -> 23 ;
24 [label=<gini = 0.411<br/>samples = 609<br/>value = [176, 433]<br/>class = Mu>, fillcolor="#89c5f0"] ;
22 -> 24 ;
25 [label=<MeanNPEActive_outer &le; 1.809<br/>gini = 0.069<br/>samples = 7938<br/>value = [282, 7656]<br/>class = Mu>, fillcolor="#40a1e6"] ;
17 -> 25 ;
26 [label=<SpatRange_outer &le; 17.5<br/>gini = 0.225<br/>samples = 1795<br/>value = [232, 1563]<br/>class = Mu>, fillcolor="#56ace9"] ;
25 -> 26 ;
27 [label=<gini = 0.291<br/>samples = 1312<br/>value = [232, 1080]<br/>class = Mu>, fillcolor="#64b2eb"] ;
26 -> 27 ;
28 [label=<gini = 0.0<br/>samples = 483<br/>value = [0, 483]<br/>class = Mu>, fillcolor="#399de5"] ;
26 -> 28 ;
29 [label=<MeanNPEActive_tot &le; 2.408<br/>gini = 0.016<br/>samples = 6143<br/>value = [50, 6093]<br/>class = Mu>, fillcolor="#3b9ee5"] ;
25 -> 29 ;
30 [label=<gini = 0.044<br/>samples = 1988<br/>value = [45, 1943]<br/>class = Mu>, fillcolor="#3e9fe6"] ;
29 -> 30 ;
31 [label=<gini = 0.002<br/>samples = 4155<br/>value = [5, 4150]<br/>class = Mu>, fillcolor="#399de5"] ;
29 -> 31 ;
32 [label=<NAS_tot &le; 7.5<br/>gini = 0.448<br/>samples = 23657<br/>value = [15635, 8022]<br/>class = Ar39>, fillcolor="#f2c29f"] ;
0 -> 32 [labeldistance=2.5, labelangle=-45, headlabel="False"] ;
33 [label=<NPE_outer &le; 11.5<br/>gini = 0.208<br/>samples = 15115<br/>value = [13331, 1784]<br/>class = Ar39>, fillcolor="#e89253"] ;
32 -> 33 ;
34 [label=<SpatRange_outer &le; 17.5<br/>gini = 0.082<br/>samples = 13802<br/>value = [13211, 591]<br/>class = Ar39>, fillcolor="#e68742"] ;
33 -> 34 ;
35 [label=<NPE_inner &le; 1.5<br/>gini = 0.065<br/>samples = 13673<br/>value = [13211, 462]<br/>class = Ar39>, fillcolor="#e68540"] ;
34 -> 35 ;
36 [label=<gini = 0.126<br/>samples = 5111<br/>value = [4767, 344]<br/>class = Ar39>, fillcolor="#e78a47"] ;
35 -> 36 ;
37 [label=<gini = 0.027<br/>samples = 8562<br/>value = [8444, 118]<br/>class = Ar39>, fillcolor="#e5833c"] ;
35 -> 37 ;
38 [label=<gini = 0.0<br/>samples = 129<br/>value = [0, 129]<br/>class = Mu>, fillcolor="#399de5"] ;
34 -> 38 ;
39 [label=<NPE_outer &le; 13.5<br/>gini = 0.166<br/>samples = 1313<br/>value = [120, 1193]<br/>class = Mu>, fillcolor="#4da7e8"] ;
33 -> 39 ;
40 [label=<MeanNPEActive_tot &le; 2.226<br/>gini = 0.466<br/>samples = 262<br/>value = [97, 165]<br/>class = Mu>, fillcolor="#add7f4"] ;
39 -> 40 ;
41 [label=<gini = 0.407<br/>samples = 151<br/>value = [43, 108]<br/>class = Mu>, fillcolor="#88c4ef"] ;
40 -> 41 ;
42 [label=<gini = 0.5<br/>samples = 111<br/>value = [54, 57]<br/>class = Mu>, fillcolor="#f5fafe"] ;
40 -> 42 ;
43 [label=<MeanNPEActive_inner &le; 1.25<br/>gini = 0.043<br/>samples = 1051<br/>value = [23, 1028]<br/>class = Mu>, fillcolor="#3d9fe6"] ;
39 -> 43 ;
44 [label=<gini = 0.026<br/>samples = 904<br/>value = [12, 892]<br/>class = Mu>, fillcolor="#3c9ee5"] ;
43 -> 44 ;
45 [label=<gini = 0.138<br/>samples = 147<br/>value = [11, 136]<br/>class = Mu>, fillcolor="#49a5e7"] ;
43 -> 45 ;
46 [label=<NPE_tot &le; 16.5<br/>gini = 0.394<br/>samples = 8542<br/>value = [2304, 6238]<br/>class = Mu>, fillcolor="#82c1ef"] ;
32 -> 46 ;
47 [label=<NAS_outer &le; 6.5<br/>gini = 0.274<br/>samples = 2459<br/>value = [2056, 403]<br/>class = Ar39>, fillcolor="#ea9a60"] ;
46 -> 47 ;
48 [label=<MeanNPEActive_tot &le; 1.708<br/>gini = 0.183<br/>samples = 1878<br/>value = [1687, 191]<br/>class = Ar39>, fillcolor="#e88f4f"] ;
47 -> 48 ;
49 [label=<gini = 0.152<br/>samples = 1737<br/>value = [1593, 144]<br/>class = Ar39>, fillcolor="#e78c4b"] ;
48 -> 49 ;
50 [label=<gini = 0.444<br/>samples = 141<br/>value = [94, 47]<br/>class = Ar39>, fillcolor="#f2c09c"] ;
48 -> 50 ;
51 [label=<SpatRange_outer &le; 16.5<br/>gini = 0.463<br/>samples = 581<br/>value = [369, 212]<br/>class = Ar39>, fillcolor="#f4c9ab"] ;
47 -> 51 ;
52 [label=<gini = 0.392<br/>samples = 453<br/>value = [332, 121]<br/>class = Ar39>, fillcolor="#eeaf81"] ;
51 -> 52 ;
53 [label=<gini = 0.411<br/>samples = 128<br/>value = [37, 91]<br/>class = Mu>, fillcolor="#8ac5f0"] ;
51 -> 53 ;
54 [label=<NPE_inner &le; 4.5<br/>gini = 0.078<br/>samples = 6083<br/>value = [248, 5835]<br/>class = Mu>, fillcolor="#41a1e6"] ;
46 -> 54 ;
55 [label=<NPE_outer &le; 16.5<br/>gini = 0.022<br/>samples = 4943<br/>value = [55, 4888]<br/>class = Mu>, fillcolor="#3b9ee5"] ;
54 -> 55 ;
56 [label=<gini = 0.359<br/>samples = 162<br/>value = [38, 124]<br/>class = Mu>, fillcolor="#76bbed"] ;
55 -> 56 ;
57 [label=<gini = 0.007<br/>samples = 4781<br/>value = [17, 4764]<br/>class = Mu>, fillcolor="#3a9de5"] ;
55 -> 57 ;
58 [label=<NPE_tot &le; 20.5<br/>gini = 0.281<br/>samples = 1140<br/>value = [193, 947]<br/>class = Mu>, fillcolor="#61b1ea"] ;
54 -> 58 ;
59 [label=<gini = 0.496<br/>samples = 206<br/>value = [112, 94]<br/>class = Ar39>, fillcolor="#fbebdf"] ;
58 -> 59 ;
60 [label=<gini = 0.158<br/>samples = 934<br/>value = [81, 853]<br/>class = Mu>, fillcolor="#4ca6e7"] ;
58 -> 60 ;
}