digraph Tree {
node [shape=box, style="filled, rounded", color="black", fontname=helvetica] ;
edge [fontname=helvetica] ;
0 [label=<MeanNPEActive_outer &le; 1.764<br/>gini = 0.5<br/>samples = 40103<br/>value = [20103, 20000]<br/>class = Ar39>, fillcolor="#fffefe"] ;
1 [label=<SpatRange_inner &le; 0.0<br/>gini = 0.351<br/>samples = 23280<br/>value = [17986, 5294]<br/>class = Ar39>, fillcolor="#eda673"] ;
0 -> 1 [labeldistance=2.5, labelangle=45, headlabel="True"] ;
2 [label=<NPE_outer &le; 5.5<br/>gini = 0.5<br/>samples = 8729<br/>value = [4238, 4491]<br/>class = Mu>, fillcolor="#f4f9fe"] ;
1 -> 2 ;
3 [label=<SpatRange_outer &le; 17.5<br/>gini = 0.444<br/>samples = 4372<br/>value = [2918, 1454]<br/>class = Ar39>, fillcolor="#f2c09c"] ;
2 -> 3 ;
4 [label=<NPE_outer &le; 4.5<br/>gini = 0.408<br/>samples = 4082<br/>value = [2918, 1164]<br/>class = Ar39>, fillcolor="#efb388"] ;
3 -> 4 ;
5 [label=<gini = 0.343<br/>samples = 2099<br/>value = [1637, 462]<br/>class = Ar39>, fillcolor="#eca571"] ;
4 -> 5 ;
6 [label=<gini = 0.457<br/>samples = 1983<br/>value = [1281, 702]<br/>class = Ar39>, fillcolor="#f3c6a6"] ;
4 -> 6 ;
7 [label=<gini = 0.0<br/>samples = 290<br/>value = [0, 290]<br/>class = Mu>, fillcolor="#399de5"] ;
3 -> 7 ;
8 [label=<NAS_tot &le; 5.5<br/>gini = 0.422<br/>samples = 4357<br/>value = [1320, 3037]<br/>class = Mu>, fillcolor="#8fc8f0"] ;
2 -> 8 ;
9 [label=<NPE_outer &le; 6.5<br/>gini = 0.459<br/>samples = 3008<br/>value = [1074, 1934]<br/>class = Mu>, fillcolor="#a7d3f3"] ;
8 -> 9 ;
10 [label=<gini = 0.492<br/>samples = 1539<br/>value = [671, 868]<br/>class = Mu>, fillcolor="#d2e9f9"] ;
9 -> 10 ;
11 [label=<gini = 0.398<br/>samples = 1469<br/>value = [403, 1066]<br/>class = Mu>, fillcolor="#84c2ef"] ;
9 -> 11 ;
12 [label=<MeanNPEActive_outer &le; 1.174<br/>gini = 0.298<br/>samples = 1349<br/>value = [246, 1103]<br/>class = Mu>, fillcolor="#65b3eb"] ;
8 -> 12 ;
13 [label=<gini = 0.489<br/>samples = 317<br/>value = [135, 182]<br/>class = Mu>, fillcolor="#cce6f8"] ;
12 -> 13 ;
14 [label=<gini = 0.192<br/>samples = 1032<br/>value = [111, 921]<br/>class = Mu>, fillcolor="#51a9e8"] ;
12 -> 14 ;
15 [label=<NAS_inner &le; 8.5<br/>gini = 0.104<br/>samples = 14551<br/>value = [13748, 803]<br/>class = Ar39>, fillcolor="#e78845"] ;
1 -> 15 ;
16 [label=<SpatRange_outer &le; 17.5<br/>gini = 0.093<br/>samples = 14439<br/>value = [13732, 707]<br/>class = Ar39>, fillcolor="#e68743"] ;
15 -> 16 ;
17 [label=<SpatlVar_outer &le; 1.02<br/>gini = 0.066<br/>samples = 14215<br/>value = [13732, 483]<br/>class = Ar39>, fillcolor="#e68540"] ;
16 -> 17 ;
18 [label=<gini = 0.006<br/>samples = 1926<br/>value = [1920, 6]<br/>class = Ar39>, fillcolor="#e5813a"] ;
17 -> 18 ;
19 [label=<gini = 0.075<br/>samples = 12289<br/>value = [11812, 477]<br/>class = Ar39>, fillcolor="#e68641"] ;
17 -> 19 ;
20 [label=<gini = 0.0<br/>samples = 224<br/>value = [0, 224]<br/>class = Mu>, fillcolor="#399de5"] ;
16 -> 20 ;
21 [label=<gini = 0.245<br/>samples = 112<br/>value = [16, 96]<br/>class = Mu>, fillcolor="#5aade9"] ;
15 -> 21 ;
22 [label=<NAS_outer &le; 3.5<br/>gini = 0.22<br/>samples = 16823<br/>value = [2117, 14706]<br/>class = Mu>, fillcolor="#56abe9"] ;
0 -> 22 [labeldistance=2.5, labelangle=-45, headlabel="False"] ;
23 [label=<gini = 0.0<br/>samples = 664<br/>value = [664, 0]<br/>class = Ar39>, fillcolor="#e58139"] ;
22 -> 23 ;
24 [label=<NPE_outer &le; 11.5<br/>gini = 0.164<br/>samples = 16159<br/>value = [1453, 14706]<br/>class = Mu>, fillcolor="#4da7e8"] ;
22 -> 24 ;
25 [label=<MeanNPEActive_inner &le; 0.0<br/>gini = 0.467<br/>samples = 3116<br/>value = [1157, 1959]<br/>class = Mu>, fillcolor="#aed7f4"] ;
24 -> 25 ;
26 [label=<SpatRange_outer &le; 17.5<br/>gini = 0.195<br/>samples = 1834<br/>value = [201, 1633]<br/>class = Mu>, fillcolor="#51a9e8"] ;
25 -> 26 ;
27 [label=<gini = 0.232<br/>samples = 1497<br/>value = [201, 1296]<br/>class = Mu>, fillcolor="#58ace9"] ;
26 -> 27 ;
28 [label=<gini = 0.0<br/>samples = 337<br/>value = [0, 337]<br/>class = Mu>, fillcolor="#399de5"] ;
26 -> 28 ;
29 [label=<NPE_outer &le; 10.5<br/>gini = 0.379<br/>samples = 1282<br/>value = [956, 326]<br/>class = Ar39>, fillcolor="#eeac7d"] ;
25 -> 29 ;
30 [label=<gini = 0.319<br/>samples = 991<br/>value = [794, 197]<br/>class = Ar39>, fillcolor="#eba06a"] ;
29 -> 30 ;
31 [label=<gini = 0.494<br/>samples = 291<br/>value = [162, 129]<br/>class = Ar39>, fillcolor="#fae5d7"] ;
29 -> 31 ;
32 [label=<NPE_tot &le; 17.5<br/>gini = 0.044<br/>samples = 13043<br/>value = [296, 12747]<br/>class = Mu>, fillcolor="#3e9fe6"] ;
24 -> 32 ;
33 [label=<SpatlVar_inner &le; 0.205<br/>gini = 0.119<br/>samples = 3112<br/>value = [198, 2914]<br/>class = Mu>, fillcolor="#46a4e7"] ;
32 -> 33 ;
34 [label=<gini = 0.062<br/>samples = 2919<br/>value = [94, 2825]<br/>class = Mu>, fillcolor="#40a0e6"] ;
33 -> 34 ;
35 [label=<gini = 0.497<br/>samples = 193<br/>value = [104, 89]<br/>class = Ar39>, fillcolor="#fbede2"] ;
33 -> 35 ;
36 [label=<MeanNPEActive_inner &le; 1.183<br/>gini = 0.02<br/>samples = 9931<br/>value = [98, 9833]<br/>class = Mu>, fillcolor="#3b9ee5"] ;
32 -> 36 ;
37 [label=<gini = 0.004<br/>samples = 7706<br/>value = [16, 7690]<br/>class = Mu>, fillcolor="#399de5"] ;
36 -> 37 ;
38 [label=<gini = 0.071<br/>samples = 2225<br/>value = [82, 2143]<br/>class = Mu>, fillcolor="#41a1e6"] ;
36 -> 38 ;
}